34 128
34 0.053095173 -0.0012075956 0.117571265 0.020617563 0.060958534 -0.021702025 -0.108715534 -0.058362298 0.016571034 0.11573974 -0.032746475 -0.1440406 0.16759734 0.023539457 0.11568055 0.00106864 -0.0005963169 -0.10081336 0.059046205 -0.19865164 -0.025437849 -0.21009095 0.08038951 0.008773442 0.079216205 0.05029141 0.16681662 -0.02550253 0.11294065 0.10327886 0.0048861373 0.07648469 0.012668234 0.34870642 -0.11531538 0.11271011 0.26747867 -0.04980592 0.034257717 -0.003439185 -0.18393047 0.1264169 -0.2508895 -0.18815924 0.08151286 0.13566841 -0.038454156 -0.15775609 -0.023944149 0.0511785 0.14501403 0.19316737 -0.04414895 0.0490878 0.15243642 0.109657764 0.031746738 -0.0075681843 0.10038243 -0.24754557 -0.10120321 -0.05544829 0.12927671 -0.25210935 -0.02520429 -0.037615858 -0.028025365 -0.09061143 -0.08581221 -0.1148223 0.25933942 0.0601369 -0.10758788 0.005927365 0.038734917 -0.24261606 0.10004341 -0.07523711 -0.12930971 0.015008182 -0.13605967 0.044266578 0.12739572 -0.034965843 -0.020037953 -0.18642747 0.08927501 -0.06339822 -0.02010433 0.17772555 0.099455796 -0.036638297 0.05386808 0.08107206 -0.20645499 0.15734817 -0.05123911 -0.087891765 -0.12607865 -0.35166153 0.113235906 -0.051160887 0.0069214427 0.09434664 -0.029581795 -0.14011048 0.04344405 -0.10523955 0.051902194 0.15422577 -0.0893905 0.009210386 0.10759871 -0.2508029 -0.02341126 0.04343406 -0.071007065 0.15841974 -0.13916549 0.03892931 -0.0031598369 -0.014194242 0.13912688 -0.021442456 0.011583741 -0.056057878 0.025385803 0.0053416966
1 -0.012370453 -0.10905609 0.03832643 0.07355712 -0.1908791 0.113124214 -0.20112447 -0.26973984 0.09696651 -0.024902204 -0.05555394 -0.15301971 0.10946501 -0.07186534 0.16393898 -0.07294709 0.06132214 0.087063394 -0.10411361 -0.09253657 0.030309362 -0.23316592 -0.08071501 0.13551907 -0.11736704 0.15408735 -0.04163541 -0.16561258 0.13237903 0.23880282 0.12863752 0.08298447 -0.054030966 0.33957306 -0.14505889 -0.024611585 0.064079426 -0.0738438 -0.12845479 -0.027824603 -0.18983512 -0.050039634 -0.18997376 -0.005374302 0.06681866 0.025908306 -0.20913355 -0.32346427 -0.020705357 0.10246826 0.08344568 0.20284007 -0.111482576 0.023304943 0.030267162 0.059065737 -0.05809227 -0.035054184 0.029991308 -0.083398715 0.012738834 -0.025799004 0.07818844 -0.101323865 0.020072317 -0.07508886 0.026762402 -0.10187026 0.054301653 -0.030609129 0.12282086 -0.078939155 -0.104563594 0.10242677 0.050370373 -0.21939023 0.15005653 -0.108753175 -0.08354497 0.043849923 -0.03415171 0.09479928 0.07050449 -0.10869551 0.028906778 -0.16225982 0.18144934 -0.017055094 0.032128014 0.08941515 0.06470359 -0.084357806 0.1353753 0.0073084556 -0.11487022 -0.026061771 0.024135489 -0.021387761 -0.14745551 -0.30737215 0.15668672 -0.06589342 -0.016469093 -0.0027387566 -0.101829246 -0.009758158 0.26679072 -0.034411486 0.08808598 0.14980699 0.077175975 0.060020972 0.12165137 -0.1602676 0.040049814 0.048313897 -0.047674336 0.006802691 -0.04031845 0.081828535 0.15387672 -0.0021502525 0.037551038 -0.12153798 -0.05556416 -0.10687919 0.027398547 -0.03238171
33 0.036885407 -0.031468526 0.103946164 0.035358522 -0.010370653 0.011319299 -0.1469938 -0.12286787 0.03903869 0.07953819 -0.043470517 -0.14919305 0.1610479 -0.0013706053 0.13021873 -0.016545795 0.016575638 -0.051013865 0.016268445 -0.17915894 -0.013481579 -0.22839554 0.040912587 0.043752868 0.03096839 0.07858722 0.11583394 -0.063031934 0.122279406 0.14489292 0.036018647 0.08598834 -0.0048880526 0.36221972 -0.1229181 0.07878116 0.22247957 -0.0536226 -0.0119459815 -0.0060531697 -0.1851773 0.084002964 -0.2383559 -0.1436751 0.07704011 0.11149031 -0.07799903 -0.20195404 -0.025206191 0.061786897 0.13518082 0.19642532 -0.060882088 0.046623014 0.12346735 0.0941016 0.0056409417 -0.012421177 0.08740381 -0.20817514 -0.074941784 -0.05031913 0.12568444 -0.21793355 -0.011914196 -0.051072992 -0.009288766 -0.090296604 -0.049971275 -0.09422874 0.22755016 0.024727402 -0.105185054 0.033645812 0.036585227 -0.24155353 0.11866024 -0.083868645 -0.118292615 0.027012976 -0.11034723 0.061837513 0.119290195 -0.0542049 -0.010109303 -0.18696871 0.11764655 -0.057476174 -0.010604299 0.15750173 0.09610325 -0.05021194 0.07901295 0.06382796 -0.19147374 0.11283962 -0.02762211 -0.07217193 -0.13065977 -0.34978798 0.12410871 -0.057257794 7.225285e-05 0.06945144 -0.04448738 -0.11155184 0.101179436 -0.0900771 0.06706543 0.15539856 -0.044328824 0.029541735 0.11694619 -0.23021051 -0.008660185 0.050061103 -0.06481563 0.1202568 -0.112082295 0.046846163 0.03527561 -0.009595069 0.116963334 -0.044331003 -0.007560752 -0.072307564 0.020439783 -0.009319656
3 0.023205448 -0.05531377 0.07530043 0.043856837 -0.06634592 0.041958388 -0.15301134 -0.16283199 0.054338057 0.043697573 -0.044882018 -0.14523478 0.1322247 -0.024032742 0.13812083 -0.032312065 0.03171196 -0.0075067035 -0.01928064 -0.13944708 0.0027092139 -0.21228279 -0.0014983119 0.066481724 -0.017310757 0.09731576 0.054207996 -0.091530226 0.11904863 0.15908061 0.06440229 0.07862208 -0.021795278 0.32583684 -0.12301971 0.03932163 0.1587964 -0.05891269 -0.0427404 -0.019377496 -0.17451537 0.03668782 -0.20673075 -0.09358767 0.06501449 0.073124886 -0.11950379 -0.23063001 -0.015821831 0.071962096 0.10668343 0.18421856 -0.073574916 0.037461907 0.0865864 0.082873456 -0.012029826 -0.022308005 0.06434575 -0.15546487 -0.039522935 -0.040775843 0.097993605 -0.16191514 -0.0028021531 -0.053923313 -0.001992459 -0.09429728 -0.013921342 -0.06881662 0.1829016 -0.009878933 -0.101766646 0.053417727 0.041162383 -0.22145382 0.1187186 -0.08382344 -0.10225414 0.02884391 -0.08235517 0.0676655 0.0953044 -0.069081165 0.005536669 -0.1606403 0.12777081 -0.03837392 0.0014797933 0.12703209 0.08236028 -0.057416826 0.09477659 0.04864452 -0.15661375 0.05960385 -0.015157005 -0.05226557 -0.13131565 -0.3218789 0.13400905 -0.053204738 -0.0032449756 0.0468942 -0.06545641 -0.07146494 0.15608564 -0.06825238 0.06997148 0.15204778 -0.00783566 0.03278453 0.10823339 -0.19652176 0.01017467 0.044391494 -0.05283001 0.077928744 -0.085068665 0.057755813 0.07329458 -0.008540562 0.08556878 -0.07213658 -0.021924743 -0.08158716 0.025474751 -0.014019342
2 0.02470439 -0.045412317 0.079600215 0.04306832 -0.053567883 0.04470037 -0.14381336 -0.15510003 0.043937113 0.044681877 -0.050051518 -0.14529645 0.13227019 -0.017095534 0.13920829 -0.026889706 0.029057989 -0.008805595 -0.021948496 -0.14652404 -0.0005632965 -0.20959158 0.005478728 0.07004835 -0.016943272 0.10449706 0.05899988 -0.093886666 0.11729102 0.16278222 0.055993915 0.08610441 -0.019377764 0.3323618 -0.13049538 0.043724347 0.16174452 -0.060073607 -0.041648872 -0.020240286 -0.17903669 0.045982596 -0.21970797 -0.1034347 0.07107915 0.076302856 -0.11419967 -0.22725019 -0.018846843 0.07336971 0.11445567 0.19308008 -0.07869586 0.037793208 0.08571561 0.09079707 -0.0016050341 -0.017795928 0.06395726 -0.15909493 -0.04140616 -0.033507545 0.09571013 -0.16859236 -0.013420567 -0.0609564 -0.010577027 -0.1026289 -0.01316511 -0.07394973 0.18546419 -0.0075629028 -0.09879868 0.0512368 0.0365643 -0.22295861 0.12241527 -0.08100544 -0.10150047 0.0192486 -0.092234574 0.069955096 0.09006697 -0.059765723 -0.0013878099 -0.16387671 0.12791003 -0.036729354 -0.0050146836 0.13259293 0.07394897 -0.05884115 0.08213612 0.043898378 -0.14840178 0.06705366 -0.018203877 -0.049018882 -0.13803121 -0.32711828 0.13104275 -0.0549804 0.0012263545 0.051464602 -0.063818894 -0.06667715 0.15159641 -0.0664384 0.06437612 0.14931269 -0.009355623 0.025515884 0.101175554 -0.20006739 0.0069398265 0.043660898 -0.060045805 0.08114901 -0.08032607 0.057072446 0.07439682 -0.0029724177 0.095628835 -0.07185123 -0.026961738 -0.08549634 0.020842101 -0.015797367
32 0.04182883 -0.011539519 0.10424463 0.021746445 0.02716373 -0.0075990227 -0.1183533 -0.08165915 0.03193086 0.103911266 -0.038866837 -0.14488098 0.15614212 0.011258192 0.11854215 -0.009245696 0.00058133114 -0.08451956 0.035088934 -0.1877074 -0.01967103 -0.21231954 0.06374874 0.023229387 0.052424464 0.060984466 0.15448841 -0.03827043 0.11735667 0.12633032 0.019593611 0.08302675 0.0010383131 0.35402006 -0.11562579 0.09727391 0.25217408 -0.050570067 0.015197322 -0.004853021 -0.18195888 0.10489177 -0.24542145 -0.1721172 0.083061196 0.12961863 -0.049510423 -0.17324108 -0.02417341 0.052477922 0.13925777 0.19148137 -0.051514186 0.04770345 0.13631819 0.10362014 0.016416736 -0.005606139 0.0935318 -0.22210263 -0.088292316 -0.050817817 0.12525329 -0.23320648 -0.018202312 -0.038417358 -0.01779987 -0.085113116 -0.07187915 -0.100294724 0.23849158 0.042123687 -0.10658341 0.021165222 0.03943969 -0.2367414 0.10875413 -0.077402815 -0.1193205 0.019568678 -0.12612265 0.055259608 0.12213374 -0.043192722 -0.012511182 -0.1814868 0.10307883 -0.06170856 -0.01819639 0.17228194 0.09780809 -0.04162189 0.06609412 0.072320595 -0.19978753 0.13969302 -0.04539481 -0.08399812 -0.12976213 -0.3488108 0.12209837 -0.050606605 0.00556928 0.08450164 -0.031756934 -0.12287609 0.062010627 -0.10381307 0.057413924 0.1512985 -0.07656952 0.021070462 0.114140704 -0.24153836 -0.024351044 0.048599925 -0.06780115 0.14334744 -0.12998202 0.04245482 0.014949949 -0.011896368 0.12740536 -0.03173116 0.0033850777 -0.064406246 0.023359185 -0.0051556416
4 0.013354279 -0.058853894 0.07397799 0.04818956 -0.079687856 0.054683212 -0.15546706 -0.16894454 0.0593693 0.036383584 -0.04751183 -0.14737071 0.12781306 -0.032124158 0.14273547 -0.037449036 0.03354129 0.01191868 -0.03854339 -0.12832458 0.008393292 -0.21603791 -0.008620448 0.081694014 -0.032329243 0.10715714 0.042486906 -0.10702361 0.12141704 0.17267893 0.07511439 0.08311361 -0.024233371 0.32954067 -0.13173123 0.03411625 0.14994898 -0.066790655 -0.054242756 -0.023681166 -0.18286784 0.024859857 -0.21294804 -0.08422156 0.07089267 0.066859975 -0.13402268 -0.24577808 -0.02166202 0.079484604 0.10586017 0.193009 -0.083283916 0.037141442 0.07863994 0.08092946 -0.015684413 -0.018799797 0.060133055 -0.15101969 -0.03740239 -0.040209122 0.09298118 -0.15768683 -0.005352247 -0.059545565 -0.0010894586 -0.09991716 -0.0072427504 -0.06425495 0.17743598 -0.02205975 -0.1030775 0.06112782 0.04700923 -0.22372556 0.12968138 -0.08776787 -0.102188565 0.023812262 -0.08250712 0.07094883 0.0855358 -0.07376678 0.002738975 -0.16377358 0.14288189 -0.030603107 0.0047661653 0.12362605 0.07725313 -0.06417633 0.09653258 0.0396928 -0.1463618 0.054537646 -0.0118269455 -0.047615606 -0.14040339 -0.32894093 0.14017296 -0.057027906 -0.008141587 0.03667719 -0.0735209 -0.059734948 0.1697446 -0.06712461 0.072549276 0.15480739 0.002581533 0.03717042 0.10762136 -0.19665542 0.009463654 0.041592326 -0.056576587 0.065509014 -0.08033373 0.06863731 0.083406575 -0.0015553281 0.08473267 -0.082840815 -0.03227288 -0.09258742 0.028039725 -0.012392389
14 0.029932393 -0.04434077 0.0834983 0.04548418 -0.05066487 0.03520532 -0.15242751 -0.1498907 0.051147778 0.055847816 -0.047492083 -0.14259428 0.13979018 -0.010115945 0.12927818 -0.03006988 0.01974644 -0.02262273 -0.012914599 -0.15303703 -0.006858064 -0.2102531 0.0136097185 0.0596921 -0.0028821891 0.09437056 0.078446425 -0.078055784 0.119438305 0.158825 0.049581457 0.07865026 -0.013271891 0.33344403 -0.1210257 0.052725527 0.17423539 -0.058145568 -0.031744372 -0.012507517 -0.17182302 0.053327065 -0.21720922 -0.10899901 0.075633004 0.08994512 -0.099617735 -0.22145192 -0.021661134 0.06471409 0.11798561 0.19426319 -0.071464695 0.043031797 0.093901955 0.08416822 -0.0038556498 -0.01526194 0.067871355 -0.17503855 -0.054122366 -0.03823768 0.107489884 -0.18200299 -0.005748984 -0.05387689 -0.0065702605 -0.09842024 -0.028566524 -0.08166291 0.19683568 -0.0019674369 -0.10000549 0.045234255 0.037819862 -0.22780927 0.11935501 -0.085052244 -0.10072246 0.021826759 -0.091409534 0.06645567 0.09926852 -0.06456431 0.0016715755 -0.17182507 0.12618808 -0.03951351 0.00032780576 0.1391778 0.08339215 -0.05819009 0.08481532 0.049019262 -0.15792112 0.07587289 -0.024347782 -0.054670252 -0.13362399 -0.32478932 0.12698838 -0.051035512 -0.0012258419 0.053064585 -0.05751972 -0.08331415 0.13536566 -0.07463326 0.06582409 0.14778657 -0.024532601 0.032180205 0.111646496 -0.20636705 -0.00048816568 0.04493362 -0.06189057 0.087724485 -0.09293391 0.051308032 0.06452726 -0.005566085 0.09827788 -0.06575714 -0.020495422 -0.076106444 0.021959819 -0.013555709
24 0.0418173 -0.007108325 0.11155801 0.018822033 0.03590584 -0.018221796 -0.11463831 -0.0765551 0.019921433 0.10621481 -0.037243623 -0.14697418 0.16144152 0.017411657 0.11267082 -0.005828691 0.0020705208 -0.08811316 0.05045876 -0.18989679 -0.017714763 -0.2121384 0.07125937 0.011258437 0.06550116 0.05280734 0.15829922 -0.030121354 0.10781295 0.112285145 0.011443844 0.07382383 0.007817751 0.34732252 -0.10996587 0.10857108 0.2604884 -0.052211538 0.027665239 -0.00882611 -0.17350966 0.11261901 -0.24199411 -0.18406247 0.0858104 0.13329749 -0.040156953 -0.16205142 -0.02523802 0.053081892 0.14346306 0.1873656 -0.04173475 0.046785213 0.14036997 0.09602263 0.022881864 -0.0057773115 0.09826138 -0.23788197 -0.09035738 -0.050850064 0.12319724 -0.2370081 -0.020886838 -0.04057464 -0.024107514 -0.08746101 -0.07714982 -0.10752428 0.24244073 0.055754356 -0.106586136 0.012506131 0.03277072 -0.23723298 0.109368674 -0.070228904 -0.12458368 0.024014415 -0.12537616 0.04701933 0.12426367 -0.039258897 -0.016805632 -0.18237959 0.10054387 -0.059453793 -0.018540293 0.17045218 0.09899046 -0.037229244 0.060568027 0.07702964 -0.20738149 0.1512857 -0.041967932 -0.0865654 -0.12626456 -0.34187308 0.1171059 -0.05228286 0.013500925 0.09035153 -0.031658735 -0.13053463 0.04779809 -0.10866022 0.060679667 0.16174789 -0.08183779 0.014210216 0.11005551 -0.24982215 -0.025843969 0.053126425 -0.07029686 0.14410399 -0.1364065 0.045996398 -0.00052037486 -0.009310454 0.13014947 -0.021532716 0.015075611 -0.05772743 0.019640526 0.0030968522
7 -0.01639688 -0.12472677 0.03953892 0.07930188 -0.21457152 0.12152315 -0.21153477 -0.2804389 0.09977362 -0.042685825 -0.05126404 -0.15333508 0.10490482 -0.08600926 0.16909026 -0.07790905 0.06735431 0.10520546 -0.11133886 -0.073640235 0.04628293 -0.23031671 -0.09274417 0.14357193 -0.13407972 0.15072083 -0.06910499 -0.16882683 0.13036269 0.23983897 0.14091897 0.07569565 -0.057712357 0.33021492 -0.14079109 -0.039147213 0.052632283 -0.06967966 -0.13743258 -0.03199836 -0.19091506 -0.06551791 -0.17375071 0.014784231 0.07001286 0.018139798 -0.22664759 -0.33952647 -0.018819911 0.109172 0.077516034 0.19291957 -0.11823151 0.01892 0.02201151 0.04244445 -0.07262868 -0.045274187 0.025771467 -0.08426009 0.022289895 -0.032756835 0.08158678 -0.09450149 0.031537563 -0.073775515 0.038333982 -0.09086242 0.06283785 -0.010728966 0.115072586 -0.08526723 -0.10809521 0.11862694 0.052606136 -0.22170775 0.15432371 -0.10608008 -0.08457612 0.046710793 -0.02897889 0.092523105 0.06748379 -0.1170794 0.028769204 -0.15892051 0.1907914 -0.009672609 0.038714033 0.08088501 0.0708451 -0.08799454 0.14287938 0.008982658 -0.11795707 -0.035383824 0.03768102 -0.014488517 -0.14399624 -0.3086909 0.16626035 -0.07007141 -0.023637762 -0.016173277 -0.111704305 -0.0044670287 0.2911692 -0.022835743 0.09742684 0.1602294 0.088365585 0.07595613 0.12888725 -0.1587694 0.044731498 0.05228209 -0.033723332 -0.006787111 -0.032041464 0.098420165 0.15937401 0.0030591828 0.016846763 -0.124593504 -0.05234486 -0.11608447 0.02129657 -0.031732675
6 -0.027095452 -0.13678722 0.026400104 0.08460022 -0.24317521 0.13705166 -0.22220907 -0.30723813 0.11070869 -0.059773896 -0.058703903 -0.14875953 0.097182214 -0.09212183 0.16459839 -0.091973424 0.07967902 0.12638909 -0.1252382 -0.055948123 0.054628845 -0.22871155 -0.11043219 0.15006433 -0.1523293 0.15997064 -0.09659569 -0.18738206 0.13273683 0.24761808 0.15400603 0.068945505 -0.057658393 0.3135633 -0.13825868 -0.06046174 0.017263107 -0.07684552 -0.1528714 -0.037448436 -0.18774569 -0.08838205 -0.16346222 0.040495332 0.06288627 0.0036155395 -0.23833469 -0.3483634 -0.020882113 0.11166935 0.067113794 0.1921589 -0.124719396 0.014071606 0.0070614656 0.031184316 -0.082524285 -0.049615584 0.014232477 -0.060531374 0.030473374 -0.027857015 0.07363334 -0.06592455 0.032960095 -0.06838609 0.049546 -0.092221946 0.08192598 0.00031151302 0.09735342 -0.09734646 -0.10946865 0.1230203 0.05224248 -0.21418417 0.155254 -0.11763044 -0.07661261 0.054879755 -0.011048563 0.09584735 0.06051889 -0.124234416 0.033938497 -0.15490223 0.1949377 -0.003953516 0.04213281 0.07132619 0.063440785 -0.096319295 0.15166496 -0.0035426863 -0.10344492 -0.059485856 0.040875584 -0.0043113725 -0.14362393 -0.29044935 0.16521028 -0.06605132 -0.027071076 -0.02538958 -0.12048062 0.015906455 0.31229097 -0.011345362 0.10132117 0.155972 0.11073743 0.082821734 0.1292224 -0.14954215 0.049013257 0.056177612 -0.029844845 -0.028699674 -0.018183803 0.09961007 0.18305625 -0.0023746376 2.1619373e-05 -0.1306788 -0.055311896 -0.124652065 0.017916553 -0.031477235
28 0.03930993 -0.018958487 0.09391544 0.031082803 0.0080717495 -0.000139634 -0.12386271 -0.098612644 0.030972855 0.082335204 -0.041137047 -0.14527255 0.14767474 0.0050151846 0.120074764 -0.0061743474 0.007363788 -0.06850679 0.028348964 -0.16737998 -0.017396873 -0.20726736 0.044555426 0.026082221 0.04138351 0.06422193 0.13121381 -0.051714104 0.11169136 0.1289076 0.0207984 0.07467709 -0.00025150838 0.3329375 -0.116758175 0.087746255 0.22456436 -0.052246235 0.0028441255 -0.009443666 -0.16828568 0.08747801 -0.2248513 -0.15203182 0.075885996 0.108456075 -0.056956276 -0.17373969 -0.02096913 0.05511959 0.12929168 0.18588635 -0.050934214 0.044435754 0.12654452 0.09360868 0.009976632 -0.014874777 0.08681229 -0.21071163 -0.07137251 -0.047189143 0.1125371 -0.20910713 -0.021449002 -0.046643984 -0.018262032 -0.089573644 -0.055707127 -0.095395945 0.22523981 0.0333337 -0.099892914 0.020939693 0.039675374 -0.22817752 0.11068198 -0.078102276 -0.11656684 0.02249555 -0.1129993 0.050964363 0.11096732 -0.04544279 -0.013378871 -0.17243564 0.10517758 -0.047706433 -0.017147526 0.1519665 0.08803446 -0.04036314 0.06810493 0.064343244 -0.1824581 0.12149938 -0.038891908 -0.07171268 -0.12541255 -0.33033788 0.1138887 -0.053468525 0.010950255 0.0743078 -0.034093406 -0.11041412 0.07411105 -0.09384816 0.054120492 0.1483306 -0.060784094 0.018373888 0.11242212 -0.2255893 -0.013106389 0.04913019 -0.06265212 0.12227817 -0.118575156 0.047802337 0.019406715 -0.0048737475 0.11953254 -0.03815655 -0.0005332326 -0.06353155 0.028286545 -0.00072936167
30 0.043930676 -0.017467916 0.104729526 0.022498596 0.017727481 -0.018544866 -0.10857784 -0.07526765 0.029157579 0.09654873 -0.034187812 -0.14415583 0.16031131 0.0142892795 0.10735288 -0.009667189 0.0070602247 -0.082921326 0.043226507 -0.18084855 -0.021855678 -0.20950681 0.057064276 0.023126418 0.05281151 0.04741365 0.14749476 -0.03973173 0.10810276 0.11587472 0.01321819 0.07479511 0.0029862232 0.33672795 -0.106383644 0.09992643 0.24452683 -0.048513398 0.016267227 -0.004770071 -0.17343885 0.10334926 -0.22967547 -0.16934538 0.08049335 0.12564835 -0.05071684 -0.16542251 -0.02377785 0.050399862 0.1358129 0.18126407 -0.040761176 0.04201252 0.13328142 0.093276344 0.009042917 -0.009093494 0.08734752 -0.22044685 -0.082146175 -0.049184486 0.12288322 -0.22252509 -0.015851658 -0.03334574 -0.014178388 -0.074402936 -0.074488156 -0.09066795 0.22979845 0.051151864 -0.10484736 0.020033669 0.029077047 -0.22978738 0.10639751 -0.072922446 -0.11883285 0.027364274 -0.12049803 0.05268268 0.12257376 -0.043517627 -0.019139007 -0.17700805 0.10537401 -0.057034943 -0.009011198 0.16663566 0.09953844 -0.043213453 0.062462546 0.074294925 -0.20106536 0.13187654 -0.039895643 -0.086500175 -0.12387438 -0.329691 0.115554765 -0.046821438 0.014451444 0.07824082 -0.031785484 -0.12836637 0.05888369 -0.1024974 0.065369636 0.1571197 -0.07487386 0.024470694 0.11763707 -0.23133393 -0.021043882 0.052075893 -0.05731988 0.13475247 -0.13031726 0.04299713 0.0101473965 -0.006015212 0.1194752 -0.023099681 0.013031485 -0.05722949 0.017603064 -0.0018972539
9 0.031561624 -0.052411895 0.086636625 0.040452912 -0.046119682 0.032188546 -0.15458755 -0.14975846 0.053780477 0.06092522 -0.04518705 -0.14458783 0.142659 -0.010716155 0.1310246 -0.030023247 0.019733973 -0.022493323 -0.014821896 -0.16246337 -0.009088222 -0.22585072 0.01386857 0.06037886 -0.0052817944 0.09740533 0.08553928 -0.08306461 0.12282847 0.16002582 0.057099693 0.08323668 -0.01648369 0.35313588 -0.12381831 0.05160315 0.18103796 -0.05530503 -0.03522157 -0.01158429 -0.18124387 0.0556906 -0.21606559 -0.11412213 0.07096871 0.09235111 -0.09982253 -0.22196792 -0.016814625 0.063755445 0.12037096 0.19012788 -0.07434014 0.039932188 0.09950159 0.09118803 -0.0048329923 -0.012598179 0.074650064 -0.17408258 -0.050497886 -0.040311094 0.11083964 -0.18877997 -0.007988841 -0.054095723 -0.008197646 -0.093460485 -0.024695959 -0.081981584 0.19623807 -0.0029144012 -0.10132286 0.046189502 0.035332423 -0.22654757 0.11746358 -0.086113885 -0.1043016 0.025676878 -0.09066829 0.067805916 0.10762248 -0.059509154 0.0025601792 -0.17204127 0.1254727 -0.046327136 0.004105647 0.14173603 0.087900646 -0.059216194 0.08992735 0.04869912 -0.16595088 0.07335796 -0.02272743 -0.064428605 -0.12999712 -0.33256423 0.12892225 -0.05169257 0.0021051087 0.055138703 -0.057111494 -0.08786992 0.13478446 -0.07888933 0.0714783 0.14435531 -0.023383692 0.037161056 0.11583013 -0.20094182 0.0003752538 0.048610166 -0.06037526 0.093138665 -0.088834666 0.04573317 0.058881916 -0.010718662 0.100817226 -0.059462115 -0.02047916 -0.07674018 0.022242699 -0.012726625
8 0.010156241 -0.06781223 0.06961748 0.052568678 -0.09993955 0.06400406 -0.17399654 -0.19558881 0.06205803 0.025615282 -0.049919978 -0.14871731 0.12727028 -0.039179776 0.14434302 -0.044508133 0.033679605 0.02316784 -0.04706944 -0.12936331 0.012728674 -0.22385816 -0.01984276 0.09402001 -0.043770097 0.11498272 0.030222554 -0.11194489 0.12656914 0.18968558 0.0864844 0.08386108 -0.025374321 0.33973002 -0.13465317 0.024592603 0.1415362 -0.061294515 -0.06805725 -0.01962322 -0.18928283 0.01202447 -0.20966265 -0.07441181 0.0715484 0.0664846 -0.1439101 -0.2640839 -0.016680133 0.08573009 0.10430957 0.19853027 -0.093511656 0.03252536 0.07612551 0.08137206 -0.024012769 -0.025690917 0.056050066 -0.14087243 -0.030937226 -0.036075905 0.101075776 -0.15664384 0.0023641167 -0.05845083 0.007855916 -0.10079972 0.005581983 -0.057637315 0.170156 -0.03264453 -0.10346335 0.06810087 0.04551568 -0.22341251 0.12762082 -0.093651034 -0.09467351 0.033376027 -0.07135236 0.07311197 0.08539075 -0.082160816 0.010955719 -0.16381958 0.14249423 -0.028558379 0.009135448 0.119363084 0.07518919 -0.06755155 0.102263585 0.034228574 -0.1393903 0.038813245 -0.0058491156 -0.040803585 -0.13400476 -0.32650256 0.14436758 -0.055394635 -0.012649995 0.02990448 -0.080764174 -0.057428163 0.18559274 -0.056145415 0.07616979 0.15109582 0.014696262 0.038095728 0.11152331 -0.18604663 0.015541079 0.04407633 -0.05724395 0.059972007 -0.066970944 0.067269824 0.0995538 -0.0010088513 0.07575052 -0.08869806 -0.036457784 -0.09342416 0.020586932 -0.015576045
29 0.03491323 -0.03072734 0.0976737 0.030732732 -0.005000342 0.0065910676 -0.13275062 -0.11348338 0.032648653 0.07760984 -0.04079383 -0.1424754 0.14747703 0.003862482 0.1185099 -0.014376703 0.013268432 -0.053225853 0.0187574 -0.17396033 -0.01297935 -0.2110244 0.04182952 0.033686116 0.034000255 0.0711585 0.12059706 -0.05992172 0.114547275 0.13256799 0.02770334 0.07822719 -0.0050986144 0.33551544 -0.11522397 0.082826704 0.21147636 -0.050290875 -0.0022448075 -0.007943298 -0.16968274 0.08442352 -0.2218321 -0.14677612 0.076496445 0.10571891 -0.06485288 -0.18744573 -0.018088972 0.056774035 0.12811895 0.19028193 -0.051394213 0.046538305 0.115439795 0.090879716 0.007370795 -0.014687699 0.08195465 -0.20307885 -0.070773624 -0.04457678 0.1146537 -0.20092009 -0.016811045 -0.04768143 -0.02013149 -0.094257794 -0.054549165 -0.09404062 0.22186609 0.027896391 -0.101956286 0.03185712 0.033577226 -0.2248999 0.11239819 -0.075018235 -0.11081203 0.02240294 -0.108561136 0.055727202 0.11025633 -0.045628022 -0.012206405 -0.16965023 0.10948989 -0.04813114 -0.01066327 0.1472622 0.089855306 -0.04866336 0.06831222 0.060142167 -0.17515792 0.113597006 -0.03038801 -0.072583996 -0.122252114 -0.32288182 0.11058209 -0.04785376 0.010107691 0.066856965 -0.038331576 -0.10466525 0.08603541 -0.08924896 0.054990787 0.15265048 -0.051460475 0.022082504 0.11026998 -0.22243005 -0.009381614 0.041759763 -0.066250525 0.11692312 -0.11218586 0.042114787 0.031017546 -0.008618618 0.11370283 -0.03968218 -0.0052257185 -0.07146895 0.024446873 -0.0055689635
25 0.04461751 -0.0064296345 0.10206615 0.018818364 0.034499742 -0.011492614 -0.115563706 -0.07809208 0.025798889 0.099636465 -0.03691157 -0.14686735 0.14972399 0.016722215 0.11742507 -0.0030031912 0.0056772763 -0.084499635 0.03848311 -0.18447432 -0.019849265 -0.19958606 0.06367589 0.017610172 0.0554067 0.05935854 0.1500708 -0.03354972 0.112467654 0.11831484 0.014328539 0.076027736 1.1591532e-05 0.3341795 -0.11336137 0.10063169 0.24135467 -0.047466032 0.015318035 -0.010437864 -0.17397131 0.103036776 -0.23537363 -0.173272 0.07773814 0.121078335 -0.04734156 -0.16381697 -0.019385682 0.049601376 0.1361069 0.19062433 -0.04763722 0.05032717 0.13449551 0.097598165 0.026979214 -0.01114692 0.09001741 -0.21934222 -0.08152794 -0.044883326 0.11662926 -0.22528689 -0.022889592 -0.0367122 -0.024669116 -0.090116665 -0.07441578 -0.10383265 0.23142537 0.040277492 -0.102579325 0.018325306 0.03880333 -0.23386195 0.104040705 -0.0757868 -0.117093235 0.017842531 -0.12432579 0.05112586 0.112286314 -0.040665314 -0.013850849 -0.17582689 0.09918794 -0.055316836 -0.020924645 0.16444483 0.09345417 -0.04021432 0.059968222 0.07227269 -0.18754871 0.13959356 -0.04976602 -0.08303382 -0.129812 -0.33636194 0.11375802 -0.04824392 0.009606627 0.08749562 -0.032797035 -0.12092367 0.05077104 -0.0998258 0.046630174 0.15172069 -0.070435606 0.015579417 0.100026265 -0.23385641 -0.024299072 0.04107962 -0.06904626 0.14053017 -0.12522876 0.043883834 0.0056114187 -0.0047613285 0.12293127 -0.033297487 0.005246819 -0.061301768 0.027104914 -0.0028999005
26 0.03776869 -0.023418773 0.091019124 0.028745286 -0.0015902065 0.004788848 -0.13270304 -0.10983673 0.036260415 0.076970786 -0.038215857 -0.14710538 0.1474939 0.0024738899 0.12333933 -0.017515551 0.015389395 -0.06088514 0.02223464 -0.16385525 -0.012610032 -0.20600727 0.038132027 0.03386914 0.03101221 0.06460951 0.12391486 -0.05780216 0.117757544 0.13650928 0.02738831 0.07312762 -0.0081783775 0.3397339 -0.11925728 0.07730732 0.21355572 -0.056801617 0.0010012744 -0.013585907 -0.17769453 0.08084208 -0.23210743 -0.15039651 0.08282041 0.10753483 -0.07260021 -0.19003797 -0.024876952 0.056755524 0.13070096 0.19457997 -0.05160803 0.04359911 0.1259041 0.08909278 0.0120216245 -0.015077822 0.08271648 -0.20766261 -0.06737571 -0.04313644 0.110149466 -0.20713127 -0.017526342 -0.04946112 -0.012495151 -0.09436012 -0.05374305 -0.09514005 0.22554368 0.028274627 -0.10808509 0.03258976 0.04503515 -0.23259826 0.11489277 -0.080893666 -0.11118877 0.023740271 -0.113187134 0.054371625 0.10968431 -0.04907477 -0.013014142 -0.18056032 0.10918251 -0.05182836 -0.008489986 0.15494026 0.09039084 -0.051104978 0.07453316 0.06784636 -0.18247549 0.11820968 -0.03240753 -0.07432256 -0.13673589 -0.33240417 0.1225367 -0.055294562 0.003749766 0.07271369 -0.043005947 -0.109259695 0.07996745 -0.08963832 0.055000234 0.15609638 -0.04945552 0.02418199 0.10920198 -0.22955486 -0.014664206 0.04821336 -0.06537018 0.12301271 -0.118190825 0.054452777 0.03093326 -0.009023497 0.11204359 -0.043756202 0.0024114295 -0.062960595 0.023838403 -0.005946685
5 -0.020626323 -0.13008624 0.027133552 0.081788786 -0.23364466 0.12611546 -0.21502589 -0.29363376 0.10945519 -0.04849782 -0.05467092 -0.15204641 0.104285516 -0.087198965 0.16430497 -0.08060227 0.074009396 0.114341915 -0.12141784 -0.068503544 0.048080735 -0.23324221 -0.10564166 0.14821117 -0.14706425 0.15808307 -0.07964335 -0.18141234 0.13319644 0.24531335 0.14481665 0.0763083 -0.05687186 0.32267165 -0.14114176 -0.048307333 0.03901684 -0.07887038 -0.146493 -0.03263259 -0.18414338 -0.078037284 -0.16376959 0.029944094 0.06196807 0.012453689 -0.22672994 -0.34379154 -0.023657978 0.114929445 0.07301733 0.18836193 -0.116603784 0.012691651 0.010279563 0.037439592 -0.076951265 -0.047757227 0.017174218 -0.06475721 0.02478644 -0.0236763 0.07283657 -0.071994685 0.03631548 -0.07169215 0.044574667 -0.08976459 0.07606869 -0.0047895894 0.10277007 -0.08605716 -0.106213786 0.11685975 0.04717429 -0.2075615 0.1547422 -0.10893652 -0.074418284 0.051486757 -0.01606065 0.09032791 0.062645465 -0.11919073 0.032865047 -0.14852577 0.19209322 -0.00714138 0.04491046 0.07131064 0.06795259 -0.09299256 0.14282267 -0.0010858565 -0.10533269 -0.05124532 0.038586043 -0.01003945 -0.13691303 -0.29088917 0.15706018 -0.06738306 -0.020126743 -0.019439487 -0.11568837 0.003252215 0.3009263 -0.021069609 0.1009197 0.15531062 0.0986047 0.07930477 0.13133246 -0.14965974 0.045074392 0.057194054 -0.035356835 -0.020750728 -0.028253619 0.09243939 0.17307624 0.001582608 0.0046934187 -0.12540537 -0.04929037 -0.114519276 0.015768135 -0.0344152
11 -0.006351035 -0.10888217 0.053760182 0.07327494 -0.17979269 0.104760714 -0.20268296 -0.25964797 0.09075675 -0.021099629 -0.05105637 -0.14685532 0.11373221 -0.069471225 0.15770093 -0.069556355 0.0610103 0.07712981 -0.08498179 -0.09150236 0.033221167 -0.22783485 -0.070200264 0.1284162 -0.10445001 0.1376357 -0.032327548 -0.14902228 0.12644944 0.22023007 0.11961668 0.07765147 -0.043987084 0.329983 -0.13498339 -0.017855141 0.077300094 -0.069377676 -0.11602007 -0.0266724 -0.19140668 -0.033998393 -0.18532002 -0.014984523 0.07175004 0.03040163 -0.1950207 -0.31143367 -0.018615665 0.09985727 0.08448122 0.19352914 -0.11159181 0.026709344 0.041675255 0.05988966 -0.057566926 -0.040514063 0.03549558 -0.09785472 0.0060774996 -0.03374813 0.08211067 -0.11333722 0.022556774 -0.0700915 0.024550034 -0.09688954 0.0423993 -0.02962198 0.1343357 -0.06310241 -0.107977174 0.09937309 0.051308353 -0.21999784 0.14213984 -0.10103691 -0.08727625 0.042253204 -0.041912336 0.08961618 0.07742493 -0.10353051 0.017966954 -0.163472 0.17629723 -0.01863306 0.025204916 0.09863261 0.07036767 -0.08350456 0.12756671 0.015327172 -0.12148418 -0.013544084 0.019305909 -0.018663064 -0.14426294 -0.30731982 0.15205427 -0.06301303 -0.02214353 -0.0010516159 -0.09700699 -0.01786067 0.25459775 -0.037815586 0.08651207 0.14875737 0.06543711 0.06299187 0.1242246 -0.17254923 0.030064827 0.050341897 -0.039685197 0.015517775 -0.04265765 0.082523376 0.1395932 0.0026023926 0.03587199 -0.11102848 -0.042308487 -0.10588843 0.024995605 -0.025518356
31 0.03050576 -0.034798145 0.089694 0.04095514 -0.031549893 0.025469163 -0.1448506 -0.13585414 0.040614694 0.06706313 -0.044784553 -0.15082352 0.14702423 -0.008307879 0.12780891 -0.0194039 0.019515455 -0.03828605 0.003994772 -0.1639229 -0.0052125803 -0.21830744 0.029896883 0.05323836 0.008506478 0.08187939 0.09962468 -0.0718582 0.11717335 0.15146258 0.040959686 0.07836098 -0.013391199 0.34632763 -0.11798079 0.06413826 0.20280206 -0.05715894 -0.017631358 -0.00980063 -0.17774987 0.06589025 -0.2276704 -0.13040061 0.07641672 0.09621776 -0.09064357 -0.20391026 -0.023903266 0.06626512 0.122965544 0.18729973 -0.060811132 0.045559324 0.10873707 0.08691241 0.0030549634 -0.013823193 0.07440697 -0.18987215 -0.06079966 -0.044313684 0.11212222 -0.19297972 -0.014303325 -0.05266572 -0.012520463 -0.09306756 -0.03741138 -0.08099442 0.2127154 0.015864762 -0.10178208 0.041592114 0.037579514 -0.23118925 0.12146174 -0.07949447 -0.10830445 0.027799029 -0.10370668 0.06489596 0.10596863 -0.053393327 -0.006036866 -0.17797986 0.12121216 -0.044240132 -0.0061544785 0.15034977 0.09100215 -0.049258683 0.080254175 0.053478345 -0.17191726 0.096092544 -0.026347151 -0.06790734 -0.13661285 -0.3380706 0.12407229 -0.05292071 0.0061595296 0.05833951 -0.0492076 -0.092183724 0.11881716 -0.08269232 0.06890247 0.15472867 -0.03776233 0.02981483 0.11664083 -0.21833919 -0.008780596 0.04460084 -0.059594758 0.10159123 -0.107675485 0.051298764 0.045723192 -0.0072747734 0.102604285 -0.056191824 -0.007474002 -0.073841706 0.02006973 -0.0124352975
20 0.01735073 -0.055527695 0.07732914 0.04721114 -0.07527404 0.046026126 -0.15023024 -0.16549239 0.052859627 0.039528638 -0.042445287 -0.14379436 0.13208756 -0.025907885 0.13623299 -0.035004504 0.027142182 -0.0019667102 -0.024557471 -0.14001976 0.003425493 -0.21428917 -0.00032560856 0.07359405 -0.02697139 0.10016312 0.057375453 -0.093827136 0.1163193 0.17261538 0.06838412 0.08391977 -0.02202523 0.33800748 -0.12498279 0.03534386 0.15837763 -0.061386675 -0.04839572 -0.017274356 -0.17837223 0.03450544 -0.20715193 -0.092389084 0.06763468 0.07865026 -0.119534366 -0.23293233 -0.024245804 0.07451717 0.10810458 0.18726431 -0.08077336 0.039262645 0.085035935 0.08314776 -0.018950995 -0.022145329 0.06261046 -0.14958298 -0.038640358 -0.03814505 0.1026711 -0.16007765 -6.841621e-05 -0.052890766 0.0015529017 -0.08822174 -0.010861863 -0.06133181 0.17881803 -0.010461853 -0.10232695 0.05757044 0.036967684 -0.21593091 0.12169897 -0.0870617 -0.099767454 0.031853512 -0.07943476 0.07305431 0.09744702 -0.06645816 0.0054071643 -0.16718383 0.13052282 -0.034516912 0.0024780112 0.13008124 0.08176873 -0.061857417 0.08914099 0.03716529 -0.1543711 0.058123846 -0.013108832 -0.0470461 -0.13083218 -0.31679168 0.13049585 -0.05546867 -0.0019374192 0.041117586 -0.06255444 -0.06990416 0.15462148 -0.06260707 0.0713077 0.14777783 -0.0033334862 0.034229968 0.1149441 -0.19524103 0.0050603664 0.0432434 -0.05675902 0.07277535 -0.08162198 0.05793791 0.073678575 -0.004270957 0.08320643 -0.072314695 -0.022922663 -0.085917994 0.024032399 -0.01326322
17 -0.02218485 -0.12867664 0.034746654 0.08122156 -0.223067 0.12564255 -0.21353585 -0.2896915 0.10582075 -0.043657266 -0.053623956 -0.15568262 0.10554778 -0.085990466 0.1637467 -0.08351971 0.07284599 0.10320723 -0.113419935 -0.06679681 0.043227427 -0.2305781 -0.094745785 0.1419949 -0.1380171 0.1490691 -0.07196558 -0.17631902 0.13073015 0.23925886 0.14295901 0.06934608 -0.058656223 0.32488677 -0.14301604 -0.044480916 0.047158208 -0.07451344 -0.14088494 -0.036301427 -0.1911862 -0.070656925 -0.17423609 0.018463556 0.06318863 0.018364238 -0.22483197 -0.33944374 -0.02282609 0.11078883 0.07193157 0.19547385 -0.11442183 0.019041605 0.019121798 0.042651977 -0.07588805 -0.04615042 0.021544691 -0.0780406 0.019038957 -0.026798043 0.07613782 -0.08264421 0.033891615 -0.07166836 0.039101966 -0.08945737 0.06863594 -0.012667324 0.1143704 -0.084193796 -0.1077614 0.118484356 0.053733155 -0.21606027 0.15904514 -0.114867516 -0.0814343 0.05296807 -0.026884226 0.095430285 0.0652162 -0.11633775 0.030178212 -0.16081963 0.19278926 -0.0072728833 0.041298937 0.08163861 0.065972075 -0.09416605 0.14568794 0.0077044014 -0.11620301 -0.03447029 0.03389146 -0.014904803 -0.14223889 -0.30498886 0.16167203 -0.069380485 -0.021846274 -0.0105037475 -0.114939876 -0.0027148349 0.2931133 -0.028396787 0.0996076 0.1599436 0.09474551 0.07501917 0.13109598 -0.1670093 0.04605317 0.054329015 -0.034644116 -0.010027297 -0.032953177 0.10111978 0.16358054 -0.0012810841 0.015163702 -0.124087594 -0.048694294 -0.1184929 0.023298826 -0.02892712
23 0.036553238 -0.03454577 0.0889125 0.02941867 -0.019259721 0.0074857967 -0.13718955 -0.11534058 0.03941068 0.07773531 -0.036639933 -0.1432086 0.15043215 -0.0020811246 0.122449696 -0.017211014 0.017123884 -0.052775726 0.01640465 -0.16707073 -0.013014859 -0.21654071 0.03537118 0.043045316 0.022239126 0.069976054 0.112868346 -0.06183424 0.11386961 0.1377532 0.034625694 0.08094148 -0.008790912 0.34474617 -0.11517983 0.076777264 0.2148416 -0.056035183 -0.010268585 -0.0106410915 -0.17178316 0.07390472 -0.22578761 -0.13718958 0.07935909 0.104998566 -0.07578477 -0.19925168 -0.026259126 0.05736501 0.12583284 0.18367703 -0.058319002 0.038012803 0.116309166 0.09139013 0.0017195315 -0.015888019 0.07645258 -0.19849516 -0.06666509 -0.044524424 0.11622042 -0.19953275 -0.01250705 -0.044584636 -0.011215934 -0.08906529 -0.047811396 -0.0894449 0.2097274 0.019454561 -0.10241817 0.034628805 0.032276154 -0.22541733 0.11448795 -0.075925164 -0.11276531 0.029494297 -0.10686128 0.061686553 0.113464415 -0.053987246 -0.010800376 -0.16979349 0.11370004 -0.048246227 -0.007225964 0.14859346 0.087049186 -0.049188875 0.07591229 0.062404074 -0.18354006 0.103858 -0.030336844 -0.07424762 -0.12884678 -0.3257695 0.11611528 -0.048114307 0.0072924253 0.06402924 -0.044527162 -0.10595856 0.09577367 -0.08682755 0.06429068 0.15371625 -0.048425138 0.029360289 0.1148227 -0.21955813 -0.012125266 0.047388174 -0.056142073 0.11281281 -0.11101652 0.049753945 0.037459575 -0.0045523485 0.103910774 -0.039748218 -0.0028092037 -0.07313236 0.025252262 -0.008052338
22 0.011742056 -0.06608656 0.06600466 0.050309993 -0.09559871 0.06518871 -0.16516998 -0.19201125 0.064371 0.021935856 -0.047182802 -0.14457265 0.12644772 -0.03710275 0.14041682 -0.04661333 0.040310778 0.022021446 -0.048990417 -0.124684535 0.008952968 -0.21573949 -0.024074348 0.09056553 -0.04382863 0.11599031 0.02760261 -0.11094598 0.12463412 0.18219735 0.07918915 0.07806954 -0.02659218 0.3303444 -0.13139912 0.025077254 0.12890653 -0.058371313 -0.06432851 -0.023849685 -0.17772199 0.009337504 -0.19996153 -0.0700186 0.070001766 0.06253028 -0.13905892 -0.2477334 -0.019827083 0.07917761 0.10375836 0.1913344 -0.086604245 0.034497328 0.06892811 0.07077438 -0.02604867 -0.02747165 0.05204649 -0.13438119 -0.027503312 -0.03799245 0.09491708 -0.14463845 0.00062052807 -0.062904 0.006323142 -0.09154073 0.008210724 -0.057359654 0.16490047 -0.03131997 -0.10252485 0.06949074 0.046233375 -0.21959619 0.12882183 -0.09054291 -0.09133471 0.029677212 -0.06715225 0.072990246 0.08243202 -0.08123238 0.009011498 -0.15996979 0.13920514 -0.028205406 0.009656515 0.11172734 0.07574934 -0.0626008 0.10171007 0.030178955 -0.13559362 0.03909394 -0.0018271845 -0.04024716 -0.132293 -0.30916446 0.13524313 -0.053348184 -0.008767079 0.033170536 -0.07427282 -0.053978015 0.17878813 -0.055661503 0.07041156 0.14430334 0.016275654 0.041792504 0.10721455 -0.18047185 0.016833063 0.04250732 -0.05460451 0.055878107 -0.066667706 0.065675765 0.09148526 -0.001965661 0.07152823 -0.08367195 -0.03323129 -0.08639189 0.025804518 -0.016720556
21 0.033440743 -0.02962407 0.100820355 0.03137421 0.003829042 0.0026726683 -0.12937579 -0.0987053 0.028486803 0.08948251 -0.03425269 -0.14373845 0.15812641 0.005482489 0.11631062 -0.011457234 0.01346189 -0.06702178 0.026031574 -0.17532258 -0.018358443 -0.21164286 0.05058769 0.032119382 0.04287095 0.063541755 0.12953457 -0.051124316 0.110951886 0.13136628 0.03075463 0.08178856 0.0010451687 0.34704244 -0.11767082 0.084425874 0.23236622 -0.057376686 0.002562484 -0.008905346 -0.1793685 0.09255498 -0.22940665 -0.1562623 0.08050067 0.11528649 -0.06267019 -0.18315724 -0.024203038 0.053372685 0.13055152 0.18493043 -0.05316552 0.045280393 0.12420889 0.093162626 0.0051391744 -0.007146397 0.088715486 -0.20862857 -0.076858334 -0.047630955 0.12058166 -0.21912554 -0.01670674 -0.04097086 -0.016454572 -0.08641207 -0.060229678 -0.093223274 0.22731973 0.03637757 -0.10032318 0.026336912 0.036947742 -0.23518583 0.113738716 -0.07643188 -0.12056438 0.023526493 -0.11606527 0.05170132 0.11745167 -0.04499939 -0.011178061 -0.17883897 0.11354198 -0.05840715 -0.008787526 0.16404414 0.09068697 -0.04182067 0.07052671 0.066795655 -0.1973284 0.121255 -0.035799384 -0.07472288 -0.12708314 -0.34194505 0.121068165 -0.056187652 0.008636661 0.06787884 -0.036144007 -0.1184331 0.08296547 -0.09474011 0.0656605 0.15310529 -0.061325658 0.027151896 0.1135188 -0.23256674 -0.01608479 0.048824243 -0.05759826 0.1287551 -0.11622846 0.046201974 0.023247864 -0.009606287 0.11996459 -0.03636969 0.001531129 -0.06833444 0.024000505 -0.0003517721
19 0.032858465 -0.036446694 0.09626143 0.035876915 -0.020637425 0.017092604 -0.13632992 -0.12455242 0.036916293 0.07636264 -0.03559858 -0.14918862 0.15010005 0.00066485716 0.12788068 -0.018007953 0.013618616 -0.049527127 0.010146773 -0.16961424 -0.013771223 -0.2199204 0.031323735 0.04190469 0.024332354 0.07321268 0.111400686 -0.06278567 0.113807775 0.1411 0.038526323 0.08389833 -0.006958292 0.34573427 -0.11640621 0.07065586 0.21228626 -0.05849525 -0.008903502 -0.011944774 -0.17572215 0.074029855 -0.22223914 -0.14005493 0.07995842 0.108163856 -0.077265285 -0.19965594 -0.021831121 0.065163955 0.12271426 0.18259333 -0.06237377 0.037020016 0.11563247 0.09024617 -0.0038025938 -0.013151195 0.07977055 -0.19877942 -0.064885415 -0.043302547 0.119001105 -0.20237526 -0.012231437 -0.047359947 -0.009828432 -0.084225096 -0.04399658 -0.084617674 0.21262662 0.01922962 -0.10101306 0.030578125 0.032309573 -0.23159628 0.115984365 -0.08067091 -0.11028818 0.025561694 -0.106846444 0.058894712 0.11071304 -0.05536213 -0.0077949846 -0.17635627 0.119439505 -0.05517106 -0.007393019 0.15359908 0.08714698 -0.046416763 0.07705388 0.061795175 -0.18133977 0.1049808 -0.028255051 -0.07299741 -0.12919971 -0.33643624 0.124749154 -0.05261656 0.005088365 0.064225785 -0.045522325 -0.10149659 0.10389728 -0.09065999 0.07063173 0.15654363 -0.041148838 0.029049335 0.11684737 -0.2203586 -0.011701901 0.050858684 -0.05546008 0.11083492 -0.1103861 0.05318108 0.034821227 -0.005084258 0.11181905 -0.048818532 -0.0069406955 -0.06669453 0.018261569 -0.008677461
16 0.03197588 -0.04210309 0.09005932 0.03582836 -0.037060056 0.023983845 -0.14844991 -0.13944317 0.05001456 0.05985879 -0.039121512 -0.14306454 0.14244588 -0.009681076 0.1239263 -0.026449086 0.017031446 -0.03330009 -0.0018559825 -0.15602604 -0.005435964 -0.21379143 0.024506003 0.052729897 0.009016963 0.084322475 0.08665837 -0.073947035 0.11580429 0.15064856 0.05015898 0.078723416 -0.010230548 0.33587953 -0.1231795 0.058028057 0.18509874 -0.057770986 -0.02659896 -0.010467252 -0.17783734 0.055578254 -0.21522123 -0.11665207 0.07302136 0.09247961 -0.09222701 -0.20983668 -0.017292332 0.06316394 0.11637695 0.18792035 -0.06441137 0.035855483 0.10245305 0.08512521 -0.007802781 -0.018908944 0.073845826 -0.18299899 -0.058627523 -0.043682367 0.106306456 -0.1917877 -0.008289515 -0.0464342 -0.008854517 -0.087260395 -0.0335723 -0.07633109 0.19769678 0.012049568 -0.103085704 0.044639047 0.038975574 -0.22727244 0.113726646 -0.080785416 -0.10765113 0.030216271 -0.09229661 0.05840995 0.10741214 -0.058803346 -0.005470457 -0.17024967 0.120036714 -0.0489637 0.0007473193 0.14031239 0.08632532 -0.051656727 0.07810152 0.05144697 -0.170524 0.086074576 -0.020975884 -0.062035378 -0.1261444 -0.32303277 0.12270666 -0.049509607 -0.0005801015 0.056059185 -0.047752306 -0.092265464 0.11852839 -0.07370022 0.06233723 0.14729032 -0.026466992 0.033464838 0.10708748 -0.2087134 -0.0029543154 0.0417192 -0.05333863 0.09823359 -0.09757677 0.048933245 0.047311664 -0.010089144 0.09668636 -0.052038785 -0.009496491 -0.06968342 0.021976108 -0.008882699
18 0.012521091 -0.07596003 0.07038553 0.055052366 -0.10866992 0.07234542 -0.17482269 -0.20479463 0.071771875 0.017137794 -0.046606377 -0.15072194 0.12845458 -0.038626235 0.15153424 -0.044494156 0.04172346 0.029803343 -0.052299976 -0.1241154 0.011457006 -0.22539027 -0.023103662 0.09573106 -0.054233298 0.122594096 0.021709342 -0.119529724 0.12863682 0.19397558 0.090114824 0.08101845 -0.028696312 0.34698126 -0.13767046 0.017804882 0.13237242 -0.06229141 -0.07328205 -0.02197979 -0.18654004 0.007385524 -0.21042804 -0.06476417 0.07066471 0.06282756 -0.15491496 -0.27184424 -0.021912467 0.085394755 0.10091168 0.20008971 -0.09140153 0.031186648 0.0666185 0.07161197 -0.028148381 -0.026117733 0.055521376 -0.13554889 -0.027334247 -0.038623687 0.09942557 -0.14854443 0.0010788634 -0.059381608 0.006744806 -0.09848427 0.0062131705 -0.056115683 0.16611168 -0.035782803 -0.102549836 0.07027317 0.041903835 -0.22534874 0.13532984 -0.09310995 -0.09982682 0.031765666 -0.07132767 0.07895794 0.084460996 -0.084969416 0.008877431 -0.16407849 0.15329985 -0.027811486 0.013934777 0.11594462 0.07658198 -0.07373105 0.107032545 0.03542574 -0.14149395 0.03588379 -0.003750391 -0.03892672 -0.14012873 -0.3222792 0.1444783 -0.056609098 -0.0092557175 0.031217571 -0.08235037 -0.048955716 0.1954905 -0.05431586 0.078543685 0.15582004 0.023815788 0.047589377 0.11540757 -0.1884996 0.012635494 0.047667496 -0.056255918 0.05577304 -0.0664945 0.072983794 0.104676016 0.00029568537 0.07143818 -0.08975462 -0.032298613 -0.091737986 0.020458654 -0.020701915
10 0.026656453 -0.05299018 0.08521006 0.046051335 -0.051884297 0.034738816 -0.15120009 -0.1486039 0.052590724 0.049874894 -0.044843454 -0.14985536 0.14272337 -0.015118198 0.13559726 -0.023972709 0.02691515 -0.02181929 -0.006738038 -0.14886218 -0.0026604421 -0.21518712 0.010002365 0.06427351 -0.008312179 0.09120774 0.0774446 -0.08620982 0.11770548 0.15685682 0.058973793 0.07913952 -0.015601959 0.3473027 -0.122031234 0.05663554 0.18450207 -0.06305456 -0.03265425 -0.015906079 -0.18534584 0.053004954 -0.22167905 -0.112149715 0.07769851 0.08850163 -0.110483535 -0.22609498 -0.022427212 0.071283095 0.117435314 0.19496214 -0.069163136 0.041965142 0.10030738 0.08390228 -0.0052058008 -0.016174963 0.068068966 -0.1798487 -0.051615734 -0.040379234 0.110811874 -0.18190694 -0.008333734 -0.056721345 -0.008980092 -0.093282014 -0.02736872 -0.07706492 0.20130582 0.0023844216 -0.10613525 0.050034996 0.041436385 -0.22743054 0.11740527 -0.07830181 -0.10637514 0.03162711 -0.09517022 0.06622946 0.101932295 -0.06356138 -0.0066159577 -0.17150903 0.12710333 -0.041737422 -0.00031733265 0.13938096 0.08830992 -0.060997143 0.08244762 0.053020954 -0.16420974 0.08140734 -0.018324727 -0.05884021 -0.1325099 -0.328035 0.1312045 -0.05685805 0.0009937824 0.046448357 -0.062204197 -0.08346641 0.13998221 -0.07711046 0.07212388 0.15922354 -0.022239394 0.033173606 0.11890391 -0.21357349 -0.0022118054 0.05137528 -0.061579913 0.090250574 -0.09710939 0.06293027 0.06467072 5.6843222e-05 0.096067116 -0.062117193 -0.016616208 -0.07857806 0.019731905 -0.015468857
13 0.011636291 -0.067925625 0.07018626 0.053325325 -0.10159595 0.07054705 -0.17695482 -0.20494874 0.06756669 0.022076895 -0.04935538 -0.15243705 0.12426012 -0.041655015 0.15070057 -0.04772686 0.035799287 0.024170993 -0.047875702 -0.12396614 0.013681028 -0.22111543 -0.020974731 0.092831336 -0.049628913 0.119402066 0.02763869 -0.11392738 0.12681781 0.19099896 0.08252346 0.08178304 -0.03049504 0.33882535 -0.13521278 0.019194448 0.13644426 -0.06220759 -0.066264 -0.026710233 -0.18840878 0.009273827 -0.21162392 -0.066186726 0.07141128 0.064635396 -0.14748709 -0.26510435 -0.01751693 0.078970164 0.104593255 0.1958044 -0.08546587 0.03735103 0.06940271 0.07817576 -0.023466254 -0.022216804 0.052648645 -0.13905118 -0.02998322 -0.03646147 0.091220915 -0.14796788 0.0028770803 -0.065454595 0.003993142 -0.099252984 0.010267633 -0.06256264 0.16836159 -0.03402699 -0.10463848 0.06789957 0.0482192 -0.22289501 0.13378179 -0.09277663 -0.09662016 0.030632578 -0.07400831 0.07540505 0.0843036 -0.080956735 0.007543214 -0.16755582 0.14509298 -0.024757246 0.010328551 0.11476695 0.07546158 -0.06926257 0.10750323 0.03556326 -0.14441592 0.03350519 -0.0058573624 -0.044230048 -0.13972886 -0.3209348 0.14159825 -0.05702087 -0.010615874 0.03005797 -0.08037617 -0.05426268 0.18472686 -0.05997229 0.07036576 0.1522768 0.020863324 0.038890038 0.114009194 -0.18710266 0.014362624 0.042175476 -0.053401507 0.058873843 -0.06778125 0.06413406 0.10019262 -0.0019281509 0.07073717 -0.091430195 -0.037162714 -0.08793669 0.021691123 -0.020464651
27 0.03523059 -0.021762237 0.1007155 0.024141828 0.012829235 -0.008555754 -0.113881595 -0.08648045 0.030236438 0.09462948 -0.037652183 -0.14677906 0.15968019 0.007608277 0.12203392 -0.006513438 0.0071763634 -0.0680896 0.02731083 -0.17962372 -0.012141965 -0.21919052 0.05255821 0.025991391 0.041357286 0.06868626 0.14012961 -0.047964483 0.11399891 0.12952489 0.023408644 0.086427525 0.00040360284 0.35120666 -0.1197838 0.0886907 0.2409173 -0.054133285 0.0062526413 -0.006641086 -0.18206327 0.09143775 -0.23997055 -0.16296494 0.08484326 0.12379931 -0.06371448 -0.18237625 -0.028785096 0.058623035 0.13330567 0.18506327 -0.04992884 0.042599637 0.13347349 0.09747226 0.0059685996 -0.009954297 0.089493014 -0.21713409 -0.07745837 -0.04466585 0.122341186 -0.22447453 -0.016675912 -0.04621283 -0.013888249 -0.081130974 -0.060633566 -0.09119886 0.22760697 0.039738316 -0.10463586 0.019289134 0.035150196 -0.22788306 0.10799149 -0.070399106 -0.11951803 0.026000652 -0.11955441 0.055767212 0.11693294 -0.04411349 -0.012307787 -0.18030511 0.11035125 -0.058964778 -0.015872858 0.16563322 0.09452467 -0.0444129 0.06518682 0.06830989 -0.19749707 0.12926212 -0.0368482 -0.07600381 -0.12322321 -0.33874214 0.1194271 -0.048439715 0.01160644 0.071005635 -0.03351182 -0.1217261 0.0731181 -0.09388121 0.06563968 0.15842503 -0.06598946 0.01905336 0.11652493 -0.23660064 -0.014105292 0.052610368 -0.06283797 0.12724301 -0.12343841 0.047608674 0.014837438 -0.0058229226 0.12399458 -0.034310643 0.0016468037 -0.065889396 0.020415625 -0.0047284835
15 0.035124425 -0.03220518 0.089575425 0.0313892 -0.016103197 0.013971545 -0.13916926 -0.1203455 0.042213526 0.07584569 -0.04314756 -0.1401139 0.1441405 -0.0014332265 0.11840555 -0.016839001 0.011956158 -0.046422914 0.0049406886 -0.16413018 -0.008625063 -0.21431923 0.03686996 0.043766014 0.017476548 0.076596394 0.10742683 -0.06403677 0.11465958 0.1413018 0.036221042 0.082485765 -0.007957829 0.33941665 -0.120860405 0.071513444 0.20093612 -0.050148994 -0.016351277 -0.009570853 -0.1752359 0.07247004 -0.2188677 -0.13590993 0.074728735 0.10331675 -0.08140359 -0.19429758 -0.019881135 0.05486988 0.1209345 0.18624033 -0.06305815 0.039474867 0.113393836 0.08986668 0.0024071448 -0.011593591 0.082157716 -0.18865108 -0.06812831 -0.039837334 0.1138288 -0.19628245 -0.016490234 -0.050112944 -0.008176357 -0.0912566 -0.04215274 -0.08853812 0.20350482 0.01739102 -0.0963778 0.030761937 0.032437682 -0.22375077 0.10635964 -0.080774754 -0.10413056 0.021371653 -0.099918 0.0582135 0.10941281 -0.04936851 -0.00818663 -0.16558282 0.107221484 -0.046113122 -0.008534911 0.14404355 0.08385382 -0.05166151 0.07147036 0.0570415 -0.17186855 0.09867099 -0.031062117 -0.06688826 -0.12690401 -0.3179166 0.1188254 -0.04726239 0.0033056962 0.058829173 -0.039605197 -0.10181973 0.09723688 -0.08151097 0.057615664 0.14704768 -0.03854196 0.026342602 0.110259734 -0.21222818 -0.008532831 0.044245843 -0.05633236 0.10422448 -0.10102607 0.041433223 0.040027715 -0.00962898 0.106138624 -0.04808407 -0.005273151 -0.06676149 0.020072397 -0.011573021
12 0.017455209 -0.065075606 0.06982736 0.050933104 -0.094793506 0.059048466 -0.1652569 -0.17938328 0.063313484 0.025917135 -0.045675527 -0.144418 0.12196157 -0.03196712 0.1400069 -0.038587775 0.031857282 0.017203622 -0.042255107 -0.12755471 0.008832752 -0.21111327 -0.019165533 0.083846875 -0.041461945 0.1124928 0.040358424 -0.10857569 0.12341418 0.17920488 0.072838075 0.07516336 -0.024653219 0.33082995 -0.12987858 0.025154056 0.13448091 -0.062137112 -0.060391027 -0.020104907 -0.17525165 0.019425308 -0.20842753 -0.07472752 0.0746509 0.06981402 -0.13857648 -0.24849224 -0.021390768 0.07784679 0.10252857 0.18773116 -0.08580193 0.035615336 0.073406324 0.07510943 -0.024136305 -0.024127102 0.054331113 -0.14739612 -0.027864065 -0.034105714 0.09551318 -0.15258346 -0.00139293 -0.061249916 0.007478335 -0.091734536 -0.003915224 -0.058135554 0.16620873 -0.022410199 -0.10650385 0.06738129 0.042871818 -0.22029231 0.13219218 -0.09077766 -0.09583379 0.032986622 -0.07277504 0.077693336 0.0920449 -0.08082922 0.0052215788 -0.168617 0.14583573 -0.03489684 0.0066020614 0.118614726 0.07932806 -0.06643849 0.101567596 0.036119614 -0.1429727 0.044212982 -0.010970905 -0.049319316 -0.13646108 -0.31880456 0.14068672 -0.052312046 -0.0028434999 0.03446801 -0.07432473 -0.060421735 0.1754668 -0.06435529 0.06905402 0.15076146 0.013307754 0.043963864 0.114450075 -0.18886696 0.014093592 0.049545534 -0.050860625 0.06161009 -0.079035446 0.0608308 0.09174564 -0.0023860303 0.07694067 -0.080922455 -0.02648632 -0.08942224 0.020205548 -0.017706513
